digraph Tree {
node [shape=box] ;
0 [label="duration <= 645.5\ngini = 0.204\nsamples = 3616\nvalue = [3200, 416]\nclass = yes"] ;
1 [label="poutcome_success <= 0.5\ngini = 0.156\nsamples = 3342\nvalue = [3058, 284]\nclass = yes"] ;
0 -> 1 [labeldistance=2.5, labelangle=45, headlabel="True"] ;
2 [label="duration <= 222.5\ngini = 0.129\nsamples = 3252\nvalue = [3027, 225]\nclass = yes"] ;
1 -> 2 ;
3 [label="recent_pdays <= 0.01\ngini = 0.051\nsamples = 2118\nvalue = [2062, 56]\nclass = yes"] ;
2 -> 3 ;
4 [label="gini = 0.043\nsamples = 2081\nvalue = [2035, 46]\nclass = yes"] ;
3 -> 4 ;
5 [label="gini = 0.394\nsamples = 37\nvalue = [27, 10]\nclass = yes"] ;
3 -> 5 ;
6 [label="age <= 60.5\ngini = 0.254\nsamples = 1134\nvalue = [965, 169]\nclass = yes"] ;
2 -> 6 ;
7 [label="gini = 0.237\nsamples = 1099\nvalue = [948, 151]\nclass = yes"] ;
6 -> 7 ;
8 [label="gini = 0.5\nsamples = 35\nvalue = [17, 18]\nclass = no"] ;
6 -> 8 ;
9 [label="duration <= 146.5\ngini = 0.452\nsamples = 90\nvalue = [31, 59]\nclass = no"] ;
1 -> 9 ;
10 [label="recent_pdays <= 0.014\ngini = 0.305\nsamples = 16\nvalue = [13, 3]\nclass = yes"] ;
9 -> 10 ;
11 [label="gini = 0.133\nsamples = 14\nvalue = [13, 1]\nclass = yes"] ;
10 -> 11 ;
12 [label="gini = 0.0\nsamples = 2\nvalue = [0, 2]\nclass = no"] ;
10 -> 12 ;
13 [label="balance <= 11133.5\ngini = 0.368\nsamples = 74\nvalue = [18, 56]\nclass = no"] ;
9 -> 13 ;
14 [label="gini = 0.346\nsamples = 72\nvalue = [16, 56]\nclass = no"] ;
13 -> 14 ;
15 [label="gini = 0.0\nsamples = 2\nvalue = [2, 0]\nclass = yes"] ;
13 -> 15 ;
16 [label="marital_married <= 0.5\ngini = 0.499\nsamples = 274\nvalue = [142, 132]\nclass = yes"] ;
0 -> 16 [labeldistance=2.5, labelangle=-45, headlabel="False"] ;
17 [label="education_tertiary <= 0.5\ngini = 0.485\nsamples = 121\nvalue = [50, 71]\nclass = no"] ;
16 -> 17 ;
18 [label="balance <= 6983.0\ngini = 0.5\nsamples = 86\nvalue = [43, 43]\nclass = yes"] ;
17 -> 18 ;
19 [label="gini = 0.499\nsamples = 83\nvalue = [43, 40]\nclass = yes"] ;
18 -> 19 ;
20 [label="gini = 0.0\nsamples = 3\nvalue = [0, 3]\nclass = no"] ;
18 -> 20 ;
21 [label="age <= 34.5\ngini = 0.32\nsamples = 35\nvalue = [7, 28]\nclass = no"] ;
17 -> 21 ;
22 [label="gini = 0.0\nsamples = 14\nvalue = [0, 14]\nclass = no"] ;
21 -> 22 ;
23 [label="gini = 0.444\nsamples = 21\nvalue = [7, 14]\nclass = no"] ;
21 -> 23 ;
24 [label="campaign <= 3.5\ngini = 0.479\nsamples = 153\nvalue = [92, 61]\nclass = yes"] ;
16 -> 24 ;
25 [label="job_technician <= 0.5\ngini = 0.455\nsamples = 120\nvalue = [78, 42]\nclass = yes"] ;
24 -> 25 ;
26 [label="gini = 0.427\nsamples = 107\nvalue = [74, 33]\nclass = yes"] ;
25 -> 26 ;
27 [label="gini = 0.426\nsamples = 13\nvalue = [4, 9]\nclass = no"] ;
25 -> 27 ;
28 [label="duration <= 1478.5\ngini = 0.489\nsamples = 33\nvalue = [14, 19]\nclass = no"] ;
24 -> 28 ;
29 [label="gini = 0.5\nsamples = 28\nvalue = [14, 14]\nclass = yes"] ;
28 -> 29 ;
30 [label="gini = 0.0\nsamples = 5\nvalue = [0, 5]\nclass = no"] ;
28 -> 30 ;
}