digraph Tree {
node [shape=box] ;
0 [label="duration <= 645.5\ngini = 0.204\nsamples = 3616\nvalue = [3200, 416]\nclass = yes"] ;
1 [label="poutcome_success <= 0.5\ngini = 0.156\nsamples = 3342\nvalue = [3058, 284]\nclass = yes"] ;
0 -> 1 [labeldistance=2.5, labelangle=45, headlabel="True"] ;
2 [label="gini = 0.129\nsamples = 3252\nvalue = [3027, 225]\nclass = yes"] ;
1 -> 2 ;
3 [label="gini = 0.452\nsamples = 90\nvalue = [31, 59]\nclass = no"] ;
1 -> 3 ;
4 [label="marital_married <= 0.5\ngini = 0.499\nsamples = 274\nvalue = [142, 132]\nclass = yes"] ;
0 -> 4 [labeldistance=2.5, labelangle=-45, headlabel="False"] ;
5 [label="gini = 0.485\nsamples = 121\nvalue = [50, 71]\nclass = no"] ;
4 -> 5 ;
6 [label="gini = 0.479\nsamples = 153\nvalue = [92, 61]\nclass = yes"] ;
4 -> 6 ;
}